<?xml version="1.0"?>
<opencv_storage>
<signal1_cascade_v3 type_id="opencv-haar-classifier">
  <size>
    24 24</size>
  <stages>
    <_>
      <trees>
        <_>
          <_>
            <feature>
              <rects>
                <_>
                  2 0 12 21 -1.</_>
                <_>
                  6 7 4 7 9.</_></rects>
              <tilted>0</tilted></feature>
            <threshold>0.2968772053718567</threshold>
            <left_val>-0.9695519208908081</left_val>
            <right_val>0.9122238159179688</right_val></_></_>
        <_>
          <_>
            <feature>
              <rects>
                <_>
                  0 7 24 7 -1.</_>
                <_>
                  6 7 12 7 2.</_></rects>
              <tilted>0</tilted></feature>
            <threshold>0.1568448990583420</threshold>
            <left_val>-0.9146025776863098</left_val>
            <right_val>0.9549735784530640</right_val></_></_></trees>
      <stage_threshold>-0.0145783396437764</stage_threshold>
      <parent>-1</parent>
      <next>-1</next></_>
    <_>
      <trees>
        <_>
          <_>
            <feature>
              <rects>
                <_>
                  5 2 13 20 -1.</_>
                <_>
                  5 7 13 10 2.</_></rects>
              <tilted>0</tilted></feature>
            <threshold>0.2828716933727264</threshold>
            <left_val>-0.7928329110145569</left_val>
            <right_val>0.9775598049163818</right_val></_></_>
        <_>
          <_>
            <feature>
              <rects>
                <_>
                  12 7 2 4 -1.</_>
                <_>
                  12 7 1 4 2.</_></rects>
              <tilted>1</tilted></feature>
            <threshold>2.5914199650287628e-003</threshold>
            <left_val>-0.6422526240348816</left_val>
            <right_val>0.5689796805381775</right_val></_></_>
        <_>
          <_>
            <feature>
              <rects>
                <_>
                  9 1 15 1 -1.</_>
                <_>
                  14 6 5 1 3.</_></rects>
              <tilted>1</tilted></feature>
            <threshold>0.0308578293770552</threshold>
            <left_val>-0.8083633780479431</left_val>
            <right_val>0.7310662865638733</right_val></_></_></trees>
      <stage_threshold>-1.0322170257568359</stage_threshold>
      <parent>0</parent>
      <next>-1</next></_>
    <_>
      <trees>
        <_>
          <_>
            <feature>
              <rects>
                <_>
                  7 1 16 7 -1.</_>
                <_>
                  11 5 8 7 2.</_></rects>
              <tilted>1</tilted></feature>
            <threshold>0.2289811968803406</threshold>
            <left_val>-0.8147972822189331</left_val>
            <right_val>0.9563059210777283</right_val></_></_>
        <_>
          <_>
            <feature>
              <rects>
                <_>
                  4 8 16 16 -1.</_>
                <_>
                  4 16 16 8 2.</_></rects>
              <tilted>0</tilted></feature>
            <threshold>-0.1629633009433746</threshold>
            <left_val>0.6880092024803162</left_val>
            <right_val>-0.9040802717208862</right_val></_></_>
        <_>
          <_>
            <feature>
              <rects>
                <_>
                  12 1 2 11 -1.</_>
                <_>
                  12 1 1 11 2.</_></rects>
              <tilted>1</tilted></feature>
            <threshold>-0.0134915998205543</threshold>
            <left_val>0.7855305075645447</left_val>
            <right_val>-0.7965394854545593</right_val></_></_></trees>
      <stage_threshold>-0.9333469867706299</stage_threshold>
      <parent>1</parent>
      <next>-1</next></_>
    <_>
      <trees>
        <_>
          <_>
            <feature>
              <rects>
                <_>
                  0 6 24 4 -1.</_>
                <_>
                  6 6 12 4 2.</_></rects>
              <tilted>0</tilted></feature>
            <threshold>0.0637347325682640</threshold>
            <left_val>-0.9771118760108948</left_val>
            <right_val>0.9218698143959045</right_val></_></_>
        <_>
          <_>
            <feature>
              <rects>
                <_>
                  12 9 4 9 -1.</_>
                <_>
                  9 12 4 3 3.</_></rects>
              <tilted>1</tilted></feature>
            <threshold>0.0181858409196138</threshold>
            <left_val>-0.9840822219848633</left_val>
            <right_val>0.7266449928283691</right_val></_></_>
        <_>
          <_>
            <feature>
              <rects>
                <_>
                  12 6 9 1 -1.</_>
                <_>
                  15 9 3 1 3.</_></rects>
              <tilted>1</tilted></feature>
            <threshold>0.0167328491806984</threshold>
            <left_val>-0.9957674145698547</left_val>
            <right_val>0.9999946951866150</right_val></_></_>
        <_>
          <_>
            <feature>
              <rects>
                <_>
                  22 0 2 1 -1.</_>
                <_>
                  22 0 1 1 2.</_></rects>
              <tilted>0</tilted></feature>
            <threshold>0.</threshold>
            <left_val>0.</left_val>
            <right_val>-1.</right_val></_></_>
        <_>
          <_>
            <feature>
              <rects>
                <_>
                  2 10 19 6 -1.</_>
                <_>
                  2 13 19 3 2.</_></rects>
              <tilted>0</tilted></feature>
            <threshold>-2.2025720681995153e-004</threshold>
            <left_val>1.</left_val>
            <right_val>-1.</right_val></_></_>
        <_>
          <_>
            <feature>
              <rects>
                <_>
                  12 9 4 9 -1.</_>
                <_>
                  9 12 4 3 3.</_></rects>
              <tilted>1</tilted></feature>
            <threshold>0.0117651997134089</threshold>
            <left_val>-0.9792807102203369</left_val>
            <right_val>0.2955859899520874</right_val></_></_>
        <_>
          <_>
            <feature>
              <rects>
                <_>
                  10 11 2 12 -1.</_>
                <_>
                  10 11 1 6 2.</_>
                <_>
                  11 17 1 6 2.</_></rects>
              <tilted>0</tilted></feature>
            <threshold>-4.8411739408038557e-004</threshold>
            <left_val>1.</left_val>
            <right_val>-1.</right_val></_></_></trees>
      <stage_threshold>-0.0516669787466526</stage_threshold>
      <parent>2</parent>
      <next>-1</next></_>
    <_>
      <trees>
        <_>
          <_>
            <feature>
              <rects>
                <_>
                  8 0 16 7 -1.</_>
                <_>
                  12 4 8 7 2.</_></rects>
              <tilted>1</tilted></feature>
            <threshold>0.2767345905303955</threshold>
            <left_val>-0.7811980247497559</left_val>
            <right_val>0.8625426292419434</right_val></_></_>
        <_>
          <_>
            <feature>
              <rects>
                <_>
                  10 9 12 3 -1.</_>
                <_>
                  14 9 4 3 3.</_></rects>
              <tilted>0</tilted></feature>
            <threshold>0.0298257507383823</threshold>
            <left_val>-0.7667580246925354</left_val>
            <right_val>0.6161171793937683</right_val></_></_>
        <_>
          <_>
            <feature>
              <rects>
                <_>
                  1 7 8 7 -1.</_>
                <_>
                  5 7 4 7 2.</_></rects>
              <tilted>0</tilted></feature>
            <threshold>0.0496168099343777</threshold>
            <left_val>-0.8303918838500977</left_val>
            <right_val>0.5635228753089905</right_val></_></_>
        <_>
          <_>
            <feature>
              <rects>
                <_>
                  13 8 3 12 -1.</_>
                <_>
                  9 12 3 4 3.</_></rects>
              <tilted>1</tilted></feature>
            <threshold>0.0240188296884298</threshold>
            <left_val>-0.3994863033294678</left_val>
            <right_val>0.1430819034576416</right_val></_></_>
        <_>
          <_>
            <feature>
              <rects>
                <_>
                  10 8 7 8 -1.</_>
                <_>
                  10 8 7 4 2.</_></rects>
              <tilted>1</tilted></feature>
            <threshold>0.1300951987504959</threshold>
            <left_val>-0.5103502273559570</left_val>
            <right_val>0.8838558197021484</right_val></_></_></trees>
      <stage_threshold>-1.3627409934997559</stage_threshold>
      <parent>3</parent>
      <next>-1</next></_>
    <_>
      <trees>
        <_>
          <_>
            <feature>
              <rects>
                <_>
                  6 3 10 6 -1.</_>
                <_>
                  6 6 10 3 2.</_></rects>
              <tilted>0</tilted></feature>
            <threshold>0.0727966129779816</threshold>
            <left_val>-0.7350665926933289</left_val>
            <right_val>0.8884487152099609</right_val></_></_>
        <_>
          <_>
            <feature>
              <rects>
                <_>
                  8 4 8 9 -1.</_>
                <_>
                  10 4 4 9 2.</_></rects>
              <tilted>0</tilted></feature>
            <threshold>-0.0138705298304558</threshold>
            <left_val>0.5509942770004273</left_val>
            <right_val>-0.8434075117111206</right_val></_></_>
        <_>
          <_>
            <feature>
              <rects>
                <_>
                  5 15 7 9 -1.</_>
                <_>
                  5 18 7 3 3.</_></rects>
              <tilted>0</tilted></feature>
            <threshold>-0.0584674887359142</threshold>
            <left_val>0.8978862762451172</left_val>
            <right_val>-0.5753331184387207</right_val></_></_></trees>
      <stage_threshold>-0.7594053149223328</stage_threshold>
      <parent>4</parent>
      <next>-1</next></_>
    <_>
      <trees>
        <_>
          <_>
            <feature>
              <rects>
                <_>
                  8 1 16 2 -1.</_>
                <_>
                  12 5 8 2 2.</_></rects>
              <tilted>1</tilted></feature>
            <threshold>0.0838935077190399</threshold>
            <left_val>-0.7760950922966003</left_val>
            <right_val>0.8230841755867004</right_val></_></_>
        <_>
          <_>
            <feature>
              <rects>
                <_>
                  10 8 6 4 -1.</_>
                <_>
                  10 10 6 2 2.</_></rects>
              <tilted>0</tilted></feature>
            <threshold>-2.5976940523833036e-003</threshold>
            <left_val>0.4572815001010895</left_val>
            <right_val>-0.7817615270614624</right_val></_></_>
        <_>
          <_>
            <feature>
              <rects>
                <_>
                  12 9 9 5 -1.</_>
                <_>
                  15 12 3 5 3.</_></rects>
              <tilted>1</tilted></feature>
            <threshold>0.0175773296505213</threshold>
            <left_val>-0.8030074834823608</left_val>
            <right_val>0.5999407768249512</right_val></_></_>
        <_>
          <_>
            <feature>
              <rects>
                <_>
                  18 0 1 4 -1.</_>
                <_>
                  18 1 1 2 2.</_></rects>
              <tilted>0</tilted></feature>
            <threshold>-2.9487379360944033e-003</threshold>
            <left_val>0.8484315872192383</left_val>
            <right_val>-0.1296240985393524</right_val></_></_>
        <_>
          <_>
            <feature>
              <rects>
                <_>
                  5 0 1 4 -1.</_>
                <_>
                  5 1 1 2 2.</_></rects>
              <tilted>0</tilted></feature>
            <threshold>-1.4163359992380720e-005</threshold>
            <left_val>0.5214864015579224</left_val>
            <right_val>-0.8702031970024109</right_val></_></_></trees>
      <stage_threshold>-0.7299587130546570</stage_threshold>
      <parent>5</parent>
      <next>-1</next></_>
    <_>
      <trees>
        <_>
          <_>
            <feature>
              <rects>
                <_>
                  12 0 11 12 -1.</_>
                <_>
                  9 3 11 6 2.</_></rects>
              <tilted>1</tilted></feature>
            <threshold>0.2196432948112488</threshold>
            <left_val>-0.6725844144821167</left_val>
            <right_val>0.8505542874336243</right_val></_></_>
        <_>
          <_>
            <feature>
              <rects>
                <_>
                  8 0 13 4 -1.</_>
                <_>
                  8 1 13 2 2.</_></rects>
              <tilted>0</tilted></feature>
            <threshold>-0.0197324305772781</threshold>
            <left_val>0.8635141253471375</left_val>
            <right_val>-0.2196283936500549</right_val></_></_>
        <_>
          <_>
            <feature>
              <rects>
                <_>
                  1 20 19 4 -1.</_>
                <_>
                  1 21 19 2 2.</_></rects>
              <tilted>0</tilted></feature>
            <threshold>-0.0136958099901676</threshold>
            <left_val>0.8998960256576538</left_val>
            <right_val>-0.3999381065368652</right_val></_></_>
        <_>
          <_>
            <feature>
              <rects>
                <_>
                  10 7 5 4 -1.</_>
                <_>
                  10 9 5 2 2.</_></rects>
              <tilted>0</tilted></feature>
            <threshold>-1.7135919770225883e-003</threshold>
            <left_val>0.4759314060211182</left_val>
            <right_val>-0.5350230932235718</right_val></_></_>
        <_>
          <_>
            <feature>
              <rects>
                <_>
                  8 1 14 8 -1.</_>
                <_>
                  8 1 7 8 2.</_></rects>
              <tilted>1</tilted></feature>
            <threshold>0.0539426617324352</threshold>
            <left_val>0.3746609985828400</left_val>
            <right_val>-0.9567968845367432</right_val></_></_>
        <_>
          <_>
            <feature>
              <rects>
                <_>
                  3 16 20 8 -1.</_>
                <_>
                  3 18 20 4 2.</_></rects>
              <tilted>0</tilted></feature>
            <threshold>-0.0559322685003281</threshold>
            <left_val>0.5493289828300476</left_val>
            <right_val>-0.5883303880691528</right_val></_></_></trees>
      <stage_threshold>-1.0298889875411987</stage_threshold>
      <parent>6</parent>
      <next>-1</next></_>
    <_>
      <trees>
        <_>
          <_>
            <feature>
              <rects>
                <_>
                  9 14 6 3 -1.</_>
                <_>
                  11 15 2 1 9.</_></rects>
              <tilted>0</tilted></feature>
            <threshold>0.0138598904013634</threshold>
            <left_val>-0.6369938850402832</left_val>
            <right_val>0.8356999754905701</right_val></_></_>
        <_>
          <_>
            <feature>
              <rects>
                <_>
                  8 2 8 12 -1.</_>
                <_>
                  10 2 4 12 2.</_></rects>
              <tilted>0</tilted></feature>
            <threshold>-0.0219681002199650</threshold>
            <left_val>0.6682211756706238</left_val>
            <right_val>-0.7714586853981018</right_val></_></_>
        <_>
          <_>
            <feature>
              <rects>
                <_>
                  4 0 16 6 -1.</_>
                <_>
                  4 2 16 2 3.</_></rects>
              <tilted>0</tilted></feature>
            <threshold>-0.0355457104742527</threshold>
            <left_val>0.6828202009201050</left_val>
            <right_val>-0.6528804898262024</right_val></_></_></trees>
      <stage_threshold>-0.7256324291229248</stage_threshold>
      <parent>7</parent>
      <next>-1</next></_>
    <_>
      <trees>
        <_>
          <_>
            <feature>
              <rects>
                <_>
                  8 0 16 7 -1.</_>
                <_>
                  12 4 8 7 2.</_></rects>
              <tilted>1</tilted></feature>
            <threshold>0.3011918962001801</threshold>
            <left_val>-0.6950212717056274</left_val>
            <right_val>0.7461050748825073</right_val></_></_>
        <_>
          <_>
            <feature>
              <rects>
                <_>
                  9 11 7 2 -1.</_>
                <_>
                  9 12 7 1 2.</_></rects>
              <tilted>0</tilted></feature>
            <threshold>-5.1644060295075178e-004</threshold>
            <left_val>0.4658615887165070</left_val>
            <right_val>-0.6781681776046753</right_val></_></_>
        <_>
          <_>
            <feature>
              <rects>
                <_>
                  8 7 6 2 -1.</_>
                <_>
                  8 8 6 1 2.</_></rects>
              <tilted>0</tilted></feature>
            <threshold>-2.0508340094238520e-004</threshold>
            <left_val>0.5169020295143127</left_val>
            <right_val>-0.7787135839462280</right_val></_></_>
        <_>
          <_>
            <feature>
              <rects>
                <_>
                  13 6 1 12 -1.</_>
                <_>
                  10 9 1 6 2.</_></rects>
              <tilted>1</tilted></feature>
            <threshold>6.2538050115108490e-003</threshold>
            <left_val>-0.5707563161849976</left_val>
            <right_val>0.1648280024528503</right_val></_></_>
        <_>
          <_>
            <feature>
              <rects>
                <_>
                  12 10 4 6 -1.</_>
                <_>
                  10 12 4 2 3.</_></rects>
              <tilted>1</tilted></feature>
            <threshold>0.0242734905332327</threshold>
            <left_val>-0.6025618910789490</left_val>
            <right_val>0.5135790705680847</right_val></_></_>
        <_>
          <_>
            <feature>
              <rects>
                <_>
                  10 8 6 4 -1.</_>
                <_>
                  10 10 6 2 2.</_></rects>
              <tilted>0</tilted></feature>
            <threshold>-3.5845609381794930e-003</threshold>
            <left_val>0.2625985145568848</left_val>
            <right_val>-0.4773871898651123</right_val></_></_>
        <_>
          <_>
            <feature>
              <rects>
                <_>
                  11 6 12 1 -1.</_>
                <_>
                  15 10 4 1 3.</_></rects>
              <tilted>1</tilted></feature>
            <threshold>0.0193518009036779</threshold>
            <left_val>-0.8023930191993713</left_val>
            <right_val>0.4216816127300263</right_val></_></_></trees>
      <stage_threshold>-1.3497270345687866</stage_threshold>
      <parent>8</parent>
      <next>-1</next></_>
    <_>
      <trees>
        <_>
          <_>
            <feature>
              <rects>
                <_>
                  1 10 10 14 -1.</_>
                <_>
                  1 10 5 7 2.</_>
                <_>
                  6 17 5 7 2.</_></rects>
              <tilted>0</tilted></feature>
            <threshold>-0.0899447426199913</threshold>
            <left_val>0.7644917964935303</left_val>
            <right_val>-0.7030029892921448</right_val></_></_>
        <_>
          <_>
            <feature>
              <rects>
                <_>
                  14 10 3 4 -1.</_>
                <_>
                  13 11 3 2 2.</_></rects>
              <tilted>1</tilted></feature>
            <threshold>-0.0124691799283028</threshold>
            <left_val>0.6298633217811585</left_val>
            <right_val>-0.4733616113662720</right_val></_></_>
        <_>
          <_>
            <feature>
              <rects>
                <_>
                  1 0 16 6 -1.</_>
                <_>
                  1 2 16 2 3.</_></rects>
              <tilted>0</tilted></feature>
            <threshold>-0.0475501604378223</threshold>
            <left_val>0.7645608782768250</left_val>
            <right_val>-0.5252919197082520</right_val></_></_>
        <_>
          <_>
            <feature>
              <rects>
                <_>
                  14 10 3 4 -1.</_>
                <_>
                  13 11 3 2 2.</_></rects>
              <tilted>1</tilted></feature>
            <threshold>-2.3493738844990730e-003</threshold>
            <left_val>0.2546446919441223</left_val>
            <right_val>-0.4828306138515472</right_val></_></_>
        <_>
          <_>
            <feature>
              <rects>
                <_>
                  10 10 4 3 -1.</_>
                <_>
                  11 11 2 3 2.</_></rects>
              <tilted>1</tilted></feature>
            <threshold>-9.1112069785594940e-003</threshold>
            <left_val>0.6896917819976807</left_val>
            <right_val>-0.5573645830154419</right_val></_></_></trees>
      <stage_threshold>-1.4519989490509033</stage_threshold>
      <parent>9</parent>
      <next>-1</next></_>
    <_>
      <trees>
        <_>
          <_>
            <feature>
              <rects>
                <_>
                  7 1 3 18 -1.</_>
                <_>
                  7 7 3 6 3.</_></rects>
              <tilted>0</tilted></feature>
            <threshold>0.0977108031511307</threshold>
            <left_val>-0.6289830803871155</left_val>
            <right_val>0.7416499853134155</right_val></_></_>
        <_>
          <_>
            <feature>
              <rects>
                <_>
                  15 8 1 2 -1.</_>
                <_>
                  15 9 1 1 2.</_></rects>
              <tilted>0</tilted></feature>
            <threshold>-7.8292978287208825e-005</threshold>
            <left_val>-0.9434010982513428</left_val>
            <right_val>0.2888546884059906</right_val></_></_>
        <_>
          <_>
            <feature>
              <rects>
                <_>
                  5 20 14 4 -1.</_>
                <_>
                  5 21 14 2 2.</_></rects>
              <tilted>0</tilted></feature>
            <threshold>-0.0128556499257684</threshold>
            <left_val>0.6636875867843628</left_val>
            <right_val>-0.5687648057937622</right_val></_></_>
        <_>
          <_>
            <feature>
              <rects>
                <_>
                  15 8 1 2 -1.</_>
                <_>
                  15 9 1 1 2.</_></rects>
              <tilted>0</tilted></feature>
            <threshold>4.6805311285424978e-005</threshold>
            <left_val>0.5212253928184509</left_val>
            <right_val>-0.7500100731849670</right_val></_></_>
        <_>
          <_>
            <feature>
              <rects>
                <_>
                  4 2 16 6 -1.</_>
                <_>
                  4 4 16 2 3.</_></rects>
              <tilted>0</tilted></feature>
            <threshold>-0.0671004429459572</threshold>
            <left_val>0.8067845702171326</left_val>
            <right_val>-0.4271864891052246</right_val></_></_></trees>
      <stage_threshold>-0.8536375164985657</stage_threshold>
      <parent>10</parent>
      <next>-1</next></_></stages></signal1_cascade_v3>
</opencv_storage>
