<?xml version="1.0"?>
<opencv_storage>
<signal3_cascade type_id="opencv-haar-classifier">
  <size>
    24 24</size>
  <stages>
    <_>
      <trees>
        <_>
          <_>
            <feature>
              <rects>
                <_>
                  8 7 16 11 -1.</_>
                <_>
                  12 7 8 11 2.</_></rects>
              <tilted>0</tilted></feature>
            <threshold>0.1649083942174912</threshold>
            <left_val>-1.</left_val>
            <right_val>1.</right_val></_></_></trees>
      <stage_threshold>1.</stage_threshold>
      <parent>-1</parent>
      <next>-1</next></_>
    <_>
      <trees>
        <_>
          <_>
            <feature>
              <rects>
                <_>
                  11 0 5 20 -1.</_>
                <_>
                  11 5 5 10 2.</_></rects>
              <tilted>0</tilted></feature>
            <threshold>0.0841217786073685</threshold>
            <left_val>-1.</left_val>
            <right_val>0.9704434275627136</right_val></_></_></trees>
      <stage_threshold>0.9704434275627136</stage_threshold>
      <parent>0</parent>
      <next>-1</next></_>
    <_>
      <trees>
        <_>
          <_>
            <feature>
              <rects>
                <_>
                  0 0 14 12 -1.</_>
                <_>
                  0 3 14 6 2.</_></rects>
              <tilted>0</tilted></feature>
            <threshold>0.0241713598370552</threshold>
            <left_val>-1.</left_val>
            <right_val>1.</right_val></_></_>
        <_>
          <_>
            <feature>
              <rects>
                <_>
                  0 11 22 10 -1.</_>
                <_>
                  0 11 11 5 2.</_>
                <_>
                  11 16 11 5 2.</_></rects>
              <tilted>0</tilted></feature>
            <threshold>-0.0244981292635202</threshold>
            <left_val>1.</left_val>
            <right_val>-1.0000040531158447</right_val></_></_></trees>
      <stage_threshold>2.</stage_threshold>
      <parent>1</parent>
      <next>-1</next></_>
    <_>
      <trees>
        <_>
          <_>
            <feature>
              <rects>
                <_>
                  2 5 6 2 -1.</_>
                <_>
                  2 5 3 2 2.</_></rects>
              <tilted>1</tilted></feature>
            <threshold>-0.0233375094830990</threshold>
            <left_val>0.9699041843414307</left_val>
            <right_val>-0.9637516736984253</right_val></_></_>
        <_>
          <_>
            <feature>
              <rects>
                <_>
                  4 13 7 4 -1.</_>
                <_>
                  4 13 7 2 2.</_></rects>
              <tilted>1</tilted></feature>
            <threshold>0.0285838097333908</threshold>
            <left_val>-0.9914621114730835</left_val>
            <right_val>0.9381104111671448</right_val></_></_></trees>
      <stage_threshold>-0.0256413202732801</stage_threshold>
      <parent>2</parent>
      <next>-1</next></_></stages></signal3_cascade>
</opencv_storage>
